Language model created by QuickLM on Sun Nov  3 01:59:51 EDT 2013
Copyright (c) 1996-2010 Carnegie Mellon University and Alexander I. Rudnicky

The model is in standard ARPA format, designed by Doug Paul while he was at MITRE.

The code that was used to produce this language model is available in Open Source.
Please visit http://www.speech.cs.cmu.edu/tools/ for more information

The (fixed) discount mass is 0.5. The backoffs are computed using the ratio method.
This model based on a corpus of 13 sentences and 16 words

\data\
ngram 1=16
ngram 2=27
ngram 3=15

\1-grams:
-0.7999 </s> -0.3010
-0.7999 <s> -0.2261
-1.9138 BACK -0.2261
-1.9138 EIGHT -0.2261
-1.9138 FIVE -0.2261
-1.6128 FLASH -0.2903
-1.9138 FOUR -0.2261
-1.9138 FRONT -0.2261
-1.9138 NINE -0.2261
-1.9138 OFF -0.2261
-1.9138 ON -0.2261
-1.9138 SEVEN -0.2261
-1.9138 SIX -0.2261
-1.9138 SNAP -0.2261
-1.9138 TEN -0.2261
-1.9138 THREE -0.2261

\2-grams:
-1.4150 <s> BACK 0.0000
-1.4150 <s> EIGHT 0.0000
-1.4150 <s> FIVE 0.0000
-1.1139 <s> FLASH 0.0000
-1.4150 <s> FOUR 0.0000
-1.4150 <s> FRONT 0.0000
-1.4150 <s> NINE 0.0000
-1.4150 <s> SEVEN 0.0000
-1.4150 <s> SIX 0.0000
-1.4150 <s> SNAP 0.0000
-1.4150 <s> TEN 0.0000
-1.4150 <s> THREE 0.0000
-0.3010 BACK </s> -0.3010
-0.3010 EIGHT </s> -0.3010
-0.3010 FIVE </s> -0.3010
-0.6021 FLASH OFF 0.0000
-0.6021 FLASH ON 0.0000
-0.3010 FOUR </s> -0.3010
-0.3010 FRONT </s> -0.3010
-0.3010 NINE </s> -0.3010
-0.3010 OFF </s> -0.3010
-0.3010 ON </s> -0.3010
-0.3010 SEVEN </s> -0.3010
-0.3010 SIX </s> -0.3010
-0.3010 SNAP </s> -0.3010
-0.3010 TEN </s> -0.3010
-0.3010 THREE </s> -0.3010

\3-grams:
-0.3010 <s> BACK </s>
-0.3010 <s> EIGHT </s>
-0.3010 <s> FIVE </s>
-0.6021 <s> FLASH OFF
-0.6021 <s> FLASH ON
-0.3010 <s> FOUR </s>
-0.3010 <s> FRONT </s>
-0.3010 <s> NINE </s>
-0.3010 <s> SEVEN </s>
-0.3010 <s> SIX </s>
-0.3010 <s> SNAP </s>
-0.3010 <s> TEN </s>
-0.3010 <s> THREE </s>
-0.3010 FLASH OFF </s>
-0.3010 FLASH ON </s>

\end\
